digraph Tree {
node [shape=box, style="filled, rounded", color="black", fontname="helvetica"] ;
edge [fontname="helvetica"] ;
0 [label=<Porcentaje &le; 0.3<br/>gini = 0.408<br/>samples = 35<br/>value = [10, 25]<br/>class = noPeligroso>, fillcolor="#88c4ef"] ;
1 [label=<Porcentaje &le; 0.077<br/>gini = 0.165<br/>samples = 11<br/>value = [10, 1]<br/>class = peligroso>, fillcolor="#e88e4d"] ;
0 -> 1 [labeldistance=2.5, labelangle=45, headlabel="True"] ;
2 [label=<gini = 0.32<br/>samples = 5<br/>value = [4, 1]<br/>class = peligroso>, fillcolor="#eca06a"] ;
1 -> 2 ;
3 [label=<gini = 0.0<br/>samples = 6<br/>value = [6, 0]<br/>class = peligroso>, fillcolor="#e58139"] ;
1 -> 3 ;
4 [label=<gini = 0.0<br/>samples = 24<br/>value = [0, 24]<br/>class = noPeligroso>, fillcolor="#399de5"] ;
0 -> 4 [labeldistance=2.5, labelangle=-45, headlabel="False"] ;
}
